53 64
in -0.33889776 -0.33889344 0.05564986 0.8547675 -0.5826789 1.1191002 1.0207956 -1.3333235 0.11122732 0.15667269 -0.038558647 0.43664446 1.1459838 -0.7115396 1.1880066 1.3888919 -0.5277975 -1.3647496 -0.5528358 0.35857055 -0.36667565 -1.0347812 0.8831501 0.3509608 -0.33265185 0.9179633 -0.42770416 0.31001198 1.4992512 -0.50324875 0.5051595 -1.8603439 0.23724632 0.8994407 -0.53702563 -0.32990122 -0.6928734 2.0089805 0.17467338 0.6779043 0.25394347 0.088974915 -0.20808698 1.1567734 -0.10356231 0.5633948 -0.84026843 -1.3177515 1.0874283 1.2457252 -0.22050808 0.1777304 0.55504 -1.7493435 -0.88797235 -0.8814577 1.222245 -0.17916088 0.8235142 -0.27793705 -0.05421658 0.85401505 -0.12917732 -0.78978664
of 1.300488 -0.03823302 0.039132893 -0.06690153 -1.5737479 -0.53099847 0.18698475 -1.157113 -1.1039469 -0.2863662 -0.2194815 0.071491584 -1.3946238 1.6488817 0.9595589 0.988209 0.3680914 -0.22178233 0.57918763 0.24360208 1.1952776 1.4105589 1.4080336 0.1208966 1.140381 0.8138274 0.3322701 0.4102715 -0.8196511 -0.5460723 0.3093906 -0.70771086 0.6256358 0.15557837 -1.1939995 -0.18261771 1.959075 -0.30192974 0.27793032 0.17129926 1.4222783 -0.60539836 -0.12074426 -0.17934625 0.5451324 -2.4874866 0.33609915 0.97560096 -0.584434 -0.99927247 -0.91035956 -0.08618323 -0.5825541 -0.19124915 -0.50925636 -0.6400418 0.53886026 -0.4797985 -1.2796183 -0.71615565 -0.36335018 -0.93332046 0.8530191 -0.79406506
thrun -0.07988519 0.7778722 -0.20364773 0.461005 0.3928589 0.6250126 -0.2538148 -1.1621755 0.059486184 -0.17391734 -0.012963988 -0.29101822 0.3373364 -1.2148883 0.7361668 0.46153247 -0.7639633 -0.117735185 -0.56532156 0.109571174 -1.5331999 -0.13946201 0.22989053 -0.8170235 -0.8970107 0.23453532 -0.5273523 -0.24512227 0.94241774 0.19628927 0.6825624 -0.8499427 -0.14023031 0.81209093 -0.096899465 -0.59289867 -0.0648803 0.93197465 1.0251396 0.8411202 -0.2041092 -0.05000598 -0.15759553 2.3536534 -0.9155106 1.0239402 0.046018198 -1.5476017 0.4368271 2.116598 0.1474426 -0.4470176 -0.7994139 -1.7755594 -0.44928434 -0.14073484 0.6190822 -0.49636215 0.83574647 1.4356638 0.56727546 1.0917703 0.015940104 0.81635046
i 0.24471316 0.1279393 -0.25955507 0.76938707 -0.12912056 -2.158553 -0.07233991 1.2176757 0.12684761 -0.6164978 0.47066957 0.006855517 -1.3729755 -0.17751941 -0.76869655 -1.0903765 -0.23030555 0.042328775 -0.4754362 0.34643114 0.6436886 0.58016866 -0.2911284 0.6112311 -0.5101929 -0.6307812 0.18920879 0.51366925 -0.47650868 1.1477354 0.009812915 1.7953273 -2.0970423 1.0425301 0.091277994 0.3126853 -1.0953112 -2.150326 -1.2506995 0.2224608 -1.15538 1.3142513 0.8789813 -0.58405817 -0.08451019 -0.44358417 -0.12446336 0.41982177 -0.28147677 0.22801512 -0.96462566 -0.9542978 -1.1490235 1.3056829 0.8797417 0.2339047 -0.8034102 -0.117088124 -0.12025092 0.91349506 -1.1987474 -0.04863434 -0.28507686 0.4225615
this -1.0319544 -1.1853039 -0.53220844 -0.10909573 0.70659655 1.2811865 0.65133995 -0.6728614 0.11241255 -1.1357292 0.80439967 0.56007916 1.437577 -0.7972849 -1.074084 0.48218647 0.59167135 1.0870532 0.61242354 0.28187165 -0.9199164 -0.5539494 -0.079208374 0.6782069 -0.3909965 -0.43458292 0.2974532 0.18703789 0.2972054 -0.19138695 -0.9887134 -0.4434233 1.8552834 -1.19188 1.863174 0.20458002 -1.1886206 0.9906874 -0.9079965 0.16404478 -0.15625952 -0.030362021 -0.06859263 -1.1843674 -0.63356614 0.9843413 -0.010153523 -1.0923331 0.9574025 -0.14173141 1.1799457 0.8003951 0.36278582 -0.17109576 0.07878886 -0.054370116 -0.40732846 0.5459878 0.74979115 -1.4727511 0.18740073 1.0274405 -0.4253085 -0.7420701
earlier -0.85214156 -0.8626243 -0.44003788 -0.53416127 0.58602977 0.93617135 0.4905087 -0.3605887 0.11015395 -1.1009358 1.2943997 0.7621696 1.0391402 -0.32884482 -0.37272963 0.55628204 0.18386632 1.1382043 0.9623089 0.25686148 -1.2142049 -0.66487366 -0.10243066 0.29307148 -0.27112287 -0.21581931 -0.23236497 0.033099797 -0.038134053 -0.03686859 -1.0484982 -0.7099798 1.5002986 -0.51464516 1.6044078 0.6224594 -0.68968356 0.80845106 -0.7209253 0.41890988 -0.65007037 -0.031858124 -0.5068251 -1.1648002 -0.40709683 0.94976836 0.45278668 -0.9740019 0.81439173 0.111115634 1.1401124 -0.12532237 0.7908426 -0.84027267 0.33201548 0.7303303 -0.43186545 0.6908604 0.71886295 -1.1134742 0.39095646 1.2523086 -0.7993596 -0.6448557
recode -0.43896192 -0.9520555 -0.2728834 -0.12153726 0.52223194 1.6069591 0.21483 -0.76470184 0.19190928 -1.4843887 1.1966302 0.82791275 1.7365377 -0.3002483 -0.5989301 0.08810553 0.554326 0.7063273 -0.044341873 0.18652263 -1.4824902 -0.9713491 0.055856176 0.33047995 -0.8521146 -0.10670777 -0.101137504 0.15612349 0.29690266 -0.414611 -0.89281046 -1.5414916 1.4831253 0.233167 1.4280779 0.32418635 -0.24090686 0.32056892 -0.49894652 -0.2087686 -0.55984163 -1.291203 -0.4167503 -1.1032013 -0.20041963 1.0616434 -0.09616283 -1.640408 0.94460714 0.03471445 0.85548896 -0.2521879 0.5926884 -0.619264 -0.61200565 -0.122197576 -0.34107566 0.748407 0.9848631 -1.0678072 0.7431313 0.7377898 0.067391 -1.1187549
very 1.6206647 0.5853308 -0.8964284 0.49814117 -1.7150555 0.049556628 0.78747934 0.94816697 0.09076361 -0.8256853 0.1750411 0.43433088 -1.8987134 1.2150404 -0.68387675 -1.2107354 1.0953735 0.19194959 0.022989135 1.3061451 0.29491705 0.37727764 0.61496997 0.56249607 0.62438774 -0.3280259 -0.067550376 0.31733578 -0.394131 -1.0369443 0.359883 0.4996095 0.21550134 -0.5859644 1.0046581 -0.8760496 0.41503012 -1.848994 -0.8669258 -0.97893965 0.37741622 -0.1795818 -0.5171755 -1.1091418 2.033366 -1.3672628 1.0543876 1.0835677 -0.10062622 -0.8083891 1.6281365 -1.1686563 -0.993359 1.0330348 1.1774501 -0.41857654 -0.8543189 -0.31438628 -1.3871546 -0.70587045 -0.25509548 -0.3887131 0.8416919 0.20963478
my -0.4893048 0.60657334 -0.08028632 -1.3594706 -0.39030826 -0.39950243 -0.7683584 1.8817303 0.116820745 0.17375708 -0.36976945 0.15292658 1.1882528 0.51003975 1.0380806 -1.56597 -0.10818064 1.4667921 0.3324639 -0.7857106 0.31977594 1.1430197 -1.7539127 0.05406476 -0.36204052 -0.19917244 0.112374395 -0.52132183 -1.5769457 0.28402752 -1.72277 1.2501999 -0.09751089 -0.95876795 -0.918228 1.0874666 0.20255339 -0.049980264 0.96778375 -1.7251743 0.2775985 -0.3244257 0.13952631 0.116826795 0.7563528 -0.055656306 -0.9741143 0.14092065 -0.669056 -1.5796462 -0.6433349 0.42099294 1.2518625 0.71615916 1.0744649 0.5792748 -0.75357825 1.3778514 0.16798267 0.7205367 -0.3416187 -1.5172565 0.18754007 -0.2366426
hand -0.8201423 -0.050249 0.460059 -1.1484834 -0.47593355 -0.88665634 -0.9169105 1.9753606 -0.22165634 0.2877878 -0.48634803 0.5805334 0.8979611 -0.12818827 -0.032297928 -1.4603899 -1.0933903 1.1903822 0.34578294 -1.6891955 -0.22928517 0.7847881 -1.3200094 0.25246477 -0.43825972 -0.10755553 -0.49416453 -1.2263087 -1.6948737 0.0880401 -1.2805147 1.5445744 -0.07994876 -0.70985216 -0.50425786 0.9813247 -0.0996444 -0.28733325 0.5106688 -1.7010577 0.27972776 0.010178259 0.93749386 0.8855774 0.29782113 -0.07142968 -1.2157503 -0.35568944 -0.9333125 -1.7233111 -0.6686189 0.32372552 0.9450997 1.0909711 1.8665577 1.0941757 -1.1016498 1.2154571 -0.08176794 0.2831098 -0.16149469 -1.317493 -0.07117198 -0.6980593
when 0.21122836 1.2385713 -1.7148173 1.0587878 1.1122301 0.051773116 -1.9758027e-05 -1.2825346 0.6689243 -0.46571758 -0.15017122 -0.6049631 0.017708333 -1.8010092 0.65934575 1.1465473 -1.3345038 -0.51293534 0.32983923 0.26379535 -1.8681692 0.65933084 0.015969602 -0.17190406 -0.4675817 -0.31019324 -0.31474662 -1.8841058 -0.30555367 -0.63786995 0.8552753 -1.1581601 -0.58314747 -0.14482062 0.6527302 -0.61877245 -0.9348138 0.7118202 0.9902054 0.41914386 1.1701248 0.6982611 1.1341658 2.1506805 -1.6939298 -0.38319695 0.1489215 -1.6100872 -0.28289884 0.39718384 0.7323892 1.0688493 -0.56532204 -0.941248 -0.5562469 -0.16781336 -0.5051984 -0.3149964 1.2201741 1.0605245 2.079622 0.52508396 -1.2228991 1.6042047
senior 1.679893 0.5026212 -0.31316307 0.5305173 -1.6762651 0.46752676 0.6203249 -0.34304193 -0.26125237 -0.8170575 -0.4228381 -0.26775312 -1.8644582 1.6512619 -0.11447621 -0.8405709 0.6972159 -0.47122326 0.74648196 1.1620145 0.70829713 0.81081545 1.2589546 1.2710327 0.67214096 -0.47073868 -0.3783276 0.15248585 -0.5786724 -1.4102033 0.3147709 -0.14442173 0.81841403 -0.24229245 0.5661797 -0.43597728 1.4635285 -1.9698632 0.10328756 -0.5950492 1.1332971 -0.4503669 0.14258741 -0.90091294 1.5372143 -1.8758823 1.5131022 1.1374708 0.0116799725 -1.4239602 1.3067266 -0.7872082 -1.0779973 0.9555072 0.5561757 -0.42611557 -0.9532482 -0.21882434 -2.1628444 -0.78240335 -0.47966462 0.24042441 1.2429215 0.07469486
car 0.23840818 -0.076000765 -0.33211508 -2.2475786 -1.466039 0.5129292 -1.2926425 0.44614208 0.26568836 0.6113259 0.052794643 0.4500071 -0.41551453 0.4884293 0.78703845 1.2275747 0.24610908 1.147121 0.7772735 -0.47597158 1.4727925 1.3881145 0.087995745 -0.29035926 0.489732 0.0029387737 0.8050038 0.34786865 0.043473694 0.40364942 -1.6626116 0.74947697 1.6496414 -1.1237334 -1.6642104 0.49821347 0.40734193 0.1970316 0.29461595 -0.29219064 1.7366049 -0.5724508 -0.93144864 -0.25370398 0.7668389 -1.2476145 -0.05734033 2.141933 -0.18191999 -0.6789953 -0.73851204 0.6218512 0.40753388 0.19930728 0.3865661 0.33901906 -0.030062538 1.6963309 -0.4002974 -0.7863601 0.2301081 -2.1725397 -0.10272747 -0.23763634
with -1.1103412 -0.99356383 -0.5281268 -0.42808312 0.49130213 1.4437225 0.15819113 -0.56002676 0.62341064 -1.0617679 1.2821238 0.25422093 2.034681 0.13930303 0.5601005 0.7107034 0.5652332 0.90349126 0.5064037 -0.015401546 -0.97003466 -1.7465829 0.26821995 0.21642286 -0.9220785 -0.26099604 -0.593203 0.016782166 0.21319816 -0.09670144 -0.98526 -1.8289987 1.3074712 0.9728502 0.37641367 0.6003742 -0.67300224 0.956924 -0.6199708 0.5164656 -0.52166736 -0.5337991 -0.63751274 -0.5282928 0.1819443 0.5283974 0.10925566 -1.7085823 0.7785632 0.47372487 0.74780184 -0.7873082 1.1925291 -1.1363125 -0.46661216 -0.0018667028 0.6278009 1.2867244 1.0241841 -0.86404294 0.49350673 1.4129807 -0.41617492 -0.6338809
few 1.1656535 -0.62451774 0.40587464 0.53670645 -1.4905357 0.27982277 1.156582 -1.8922113 -0.65682274 0.14029156 -0.5701482 0.0701727 0.0052273753 0.04096657 2.5848534 0.2757437 0.1764875 -1.6167921 0.36953554 1.8556606 0.541465 -0.22316375 1.406564 0.18167353 0.4973064 1.8596839 0.016936166 0.9276165 0.5986928 -0.5145987 0.481035 -1.7700845 -0.3284329 1.1014546 -0.44479695 -0.20192426 0.40164044 1.7541044 0.7483187 -0.25758466 0.737155 -0.4028571 -0.6973995 0.20112823 -0.072456315 0.57827073 -0.6241344 -0.41934562 0.072350636 -0.8557341 0.016083615 0.5635564 0.19364572 -1.6142246 -0.45334375 -0.18918768 1.3584664 -1.7267455 0.8906852 -0.49346143 -0.81937236 0.31275916 -0.07858823 -2.3112879
turn -0.51561064 -0.715771 0.45820138 -0.5526905 -0.45191312 -1.211186 -0.83604425 2.3710966 -0.120849974 0.3820455 -0.12883624 1.285132 0.6735834 -0.04265339 -1.1178496 -1.3957839 -1.0185171 1.1098026 0.75438744 -1.2146388 -0.22634791 0.36400467 -1.1172032 0.5771448 0.04557701 -0.6148586 -0.4450695 -0.9388777 -1.302513 0.24195708 -0.31176972 2.1600316 -1.1724985 0.7569766 -0.3303488 0.91273695 -0.85165125 -0.72570497 -0.5057551 -1.3232534 0.06490432 0.48806366 1.6712539 0.63218963 0.48933715 -0.33980665 -0.6407928 -0.8308726 -1.0985034 -1.3321092 -0.55673814 0.39483956 1.0737312 1.2902149 1.2470601 0.71548724 -0.93100184 0.2252602 0.050102513 0.36143693 -0.9255802 -1.5092046 -0.66536576 -0.76444536
away -0.057936992 -1.0153446 -0.43331215 -0.37859777 -0.17069009 -1.3336443 0.104437426 2.6276698 0.5655458 0.28694287 -0.72108185 0.8828504 0.32463577 -0.25077984 -0.8089542 -1.0850399 -1.2070377 0.6876785 -0.1079866 -0.7021882 -0.53038806 0.9605447 -0.8206375 0.70157623 0.4249448 -0.95444614 0.5120044 -0.53950036 -1.3801161 0.6248662 -0.16801347 2.3485386 -1.4250911 0.84734076 -0.105770685 0.42176926 -1.5765661 -1.7012839 -0.65242815 -0.94568133 -0.13990779 0.3995618 2.195571 -0.38599455 -0.05573751 -0.63546234 -0.7997145 -0.14075805 -0.6083902 -1.3009868 -1.2158068 -0.2315504 0.27989024 2.3049138 1.1316897 0.86453605 -1.1348156 -0.039409164 -0.11579821 0.87931156 -0.6724014 -0.8928567 -0.6986724 -0.8049795
you 1.4154618 0.3096558 -1.2804648 0.33898872 -0.5258401 -0.4721062 0.40486705 1.2662218 0.43377626 -0.921237 0.27137786 -0.55824804 -1.6258887 1.1691875 0.15429364 -1.5502292 0.8163012 -0.13027889 0.5908009 1.9440284 0.32625368 0.41494322 0.38397548 1.4805632 0.6710293 -0.48131803 -0.24157527 0.21868855 -0.38295114 -1.3125938 0.34698942 1.1716835 -0.41251567 0.18971875 0.86997896 -0.5548719 0.9443038 -1.9519951 -0.5212068 -1.7327285 0.082722396 0.056745082 0.347735 -1.1560001 1.757325 -0.5387081 1.7445002 0.9644792 -0.096150525 -0.94576627 1.7494802 -1.3184658 -1.2247992 1.4265373 0.9016969 -0.6951091 -1.5705138 -0.19391781 -1.2804977 0.44442597 -1.2103829 0.43938443 0.6358909 0.59441745
american 1.1553354 -0.10308155 -0.07904839 -1.7212534 -1.1194478 0.31199583 -1.72861 -0.06435273 0.21413036 0.33852634 0.13074332 0.50222486 -0.6216935 1.0214881 0.57390314 1.5537124 0.64675516 0.6963701 0.73441094 -0.07329676 1.9600763 1.7548724 0.5598582 0.13935831 1.1118171 0.21344028 0.6315959 0.14309329 -0.45936605 0.36238506 -1.687783 0.8084761 1.6494826 -1.2361485 -0.88147265 0.25240782 1.69441 0.533397 1.136075 -0.23440218 1.7758837 -0.89027554 -0.07307585 -0.15607868 0.17997882 -2.1173835 0.49969667 1.627242 0.16877769 -0.44930348 -0.7492995 0.818176 0.5415434 -0.08435969 0.09480607 0.16308288 0.325346 0.36077684 -0.9467335 -0.586693 -0.15914865 -1.0426562 0.44861946 0.59586334
companies 0.7827791 0.23096378 -0.06390282 -1.6381122 -0.893023 0.40443337 -1.8176696 0.50177085 0.5249915 1.0679954 -0.11714303 0.36939573 0.2393308 0.2139664 0.9337459 0.6372613 0.49842447 0.85370183 0.8188491 -1.0981617 1.1514846 1.8976216 -0.69279706 -0.23044844 -0.119555905 0.09375567 0.539983 0.37824282 -0.7614023 0.812442 -2.2639916 0.59774774 1.2317592 -1.5644408 -0.656736 0.6672947 0.6661134 0.52430356 1.0551412 -0.9045141 1.8020958 -1.1791526 -0.297026 0.18292755 0.45327014 -1.3160046 -0.8060312 1.2214745 -0.302379 -0.769841 -0.8186716 1.3503525 0.8722245 -0.11002922 0.56966853 0.66291296 0.12988465 1.202871 -0.9070656 -0.48551232 0.838969 -1.779922 0.23685782 0.26052806
2007 0.7025589 -0.73964626 -0.11775488 0.55529606 -0.9456012 0.44815528 1.2996505 -1.7700124 -0.64629555 0.10312134 -0.1072795 0.35658422 1.0976484 -0.40741655 2.2497768 0.020861425 0.17486855 -1.3127693 0.033502493 1.3585184 -0.73856425 0.27792287 1.1464962 -1.0936339 1.2207837 1.482546 -0.102518834 1.0318916 0.477567 -0.031577576 0.96368635 -1.3634816 0.116726086 0.57411075 -0.5643867 -0.123269014 0.3767056 1.9275001 0.40026256 -0.050564136 -0.06523389 0.5031462 -1.1435809 0.68796235 -0.81603366 0.59750783 -0.80924016 -0.85842305 -0.09511387 0.09953957 -0.23508234 0.26093352 -0.5767457 -1.5856594 -0.8817798 -1.1335193 1.5905387 -0.664613 1.3109723 -0.0655693 -0.3013116 0.5093745 0.86333865 -1.599352
interview -0.94814795 -0.22545214 -0.6179745 0.6294544 -0.0047942954 1.5250257 0.3704305 -0.8461255 0.36444834 -1.1629268 0.7927427 0.63884324 2.118374 -0.20371118 0.53022027 1.1259313 0.336708 -0.4280973 -0.7441008 -0.24340977 -1.1033971 -1.7274868 0.49704695 0.5069294 -0.36505544 0.20096187 -0.750716 -0.22584471 0.7686894 -0.43510535 -0.4119713 -2.524408 1.0360676 1.1705586 0.61793464 0.37480086 -0.8337828 0.78592 -0.61128134 0.05838201 -0.64052993 -1.031344 -0.44744283 -0.5736634 0.3861365 0.20317265 -0.6007852 -2.2343402 1.0231681 0.48302832 0.53821075 -0.7059874 1.2305571 -0.83565795 -1.2765013 -0.922053 -0.045183275 1.5926497 1.0844471 -1.0502731 0.5567247 1.1860672 0.04210664 -0.50941604
shake 0.0049228547 0.47428644 0.039607175 -1.5561152 -0.8129237 -0.033466905 -1.2348989 1.1134942 0.68987453 1.2255812 -1.0020002 -0.007040769 0.57075125 -0.29194614 0.81802493 -0.71561056 -0.15716526 0.7382889 0.37158886 -1.4039924 0.09896405 1.3871697 -0.95925367 -0.11442206 -0.6099185 -0.15837538 0.30763286 -0.45013407 -1.4015774 0.40360764 -1.925225 0.64481866 0.82264817 -1.325574 -0.3284744 0.7859459 -0.028628562 0.13048007 1.0957342 -1.5491531 1.2177353 -0.97784907 0.25890502 0.3319098 0.61775535 -0.5076883 -1.6221942 0.41955182 -0.87897664 -1.610163 -0.4193557 0.9929868 0.80877626 0.66207504 1.4661305 1.1598257 -0.6991057 1.5102522 -0.899597 -0.30983 0.8111293 -1.3808063 0.15933679 -0.4745194
and -1.0027554 -0.1338384 -0.08670752 -1.3085774 0.09198385 -0.77294177 -0.3491187 2.595063 -0.1828584 -0.2137583 -0.7036587 0.71654344 1.0597719 0.19581933 -0.4201639 -1.2699646 -0.82866067 1.4315509 -0.07834763 -0.8177242 -0.6708677 1.2212745 -1.3360656 0.14523539 0.046265364 -0.4798774 0.27679476 -1.05887 -1.6357092 -0.17548497 -0.99070185 1.8681685 -0.7582291 -0.308282 -0.32008386 1.0911654 -0.90713805 -0.72680104 0.25089866 -1.3762484 -0.07800366 -0.07308055 1.2898959 0.06268359 0.26292533 -0.04742445 -0.6919989 -0.23422112 -0.63092905 -1.5608515 -1.2509521 -0.05290534 1.2250723 1.5606233 0.9088262 1.0353614 -1.0818217 0.588797 0.54625374 0.96614283 -0.53946346 -1.2518818 -0.6412764 -0.636475
people 1.63463 -0.6806821 0.33868638 0.3143559 -1.1620022 0.078581356 0.94187737 -1.4042292 -1.2101537 -0.06903896 -0.36444855 0.34631836 0.26193136 0.6226037 2.2030401 0.16815153 0.25376567 -1.1952688 0.6027416 1.0918489 -0.49794108 1.3270726 1.7797124 -1.0652685 1.4990087 2.0931282 -0.06403377 0.9453121 -0.16878048 -0.7318412 1.2161722 -1.3856269 0.17780481 0.17677061 -0.4856606 -0.09482166 1.3082198 1.3813492 0.78127706 -0.6062882 0.5131484 -0.47105676 -1.061674 0.11174138 -0.09699924 -0.50651395 -0.3542009 0.032698013 -0.88694495 -1.0479947 -0.7050114 0.42504138 -0.3073579 -1.3593124 -0.93258566 -0.68795294 1.6588066 -1.028832 0.5811186 -0.39244625 -0.18170537 -0.4282791 0.68578917 -1.9399707
to 0.07616149 1.0133531 0.2891937 0.8162147 -1.0311942 -0.017215293 0.3069168 0.35527992 -0.32460475 -0.69665116 -0.16872919 0.5495625 -1.5285804 -0.8842286 -0.9468103 -0.025296004 -0.93919134 -0.26299265 -1.0976654 -1.5470638 -1.8576936 0.49700588 -0.09244776 0.21576041 -1.6065344 0.29528317 -0.735693 -0.40019244 1.1435753 0.9307197 1.6802824 0.71506304 -1.1009856 0.69123966 0.021000396 -0.5504415 -0.124465585 0.028905094 0.4375574 0.6312923 -1.4066492 0.6524936 -0.67062646 1.5715871 0.39672437 2.2716155 -0.0013437925 -0.7046416 1.5413898 2.3195477 -0.44666052 -1.5768276 -0.94310564 -1.4357679 0.77890897 -0.10983698 -1.3781953 -1.1629997 0.4772415 1.493165 0.078473516 1.0278709 -0.40091637 0.44376644
self-driving -0.63843465 1.588737 1.1286548 0.56593937 1.9347167 1.4763733 -0.07111687 1.1223892 1.0302311 0.22584881 0.077795036 -0.5721284 0.5508608 -0.9234975 -0.9059292 -0.37728572 1.0510378 -1.4890274 -0.5891058 1.113431 -0.13228388 -0.26340044 0.42771566 -1.0286267 0.042542696 -1.0829468 -1.0365285 -0.3726213 0.9913681 -1.7016197 0.5732158 0.075514354 0.7994371 -1.0064809 0.8756909 0.1837305 -0.77332157 0.17054355 0.48461443 0.12863198 -0.09629503 -0.63065046 0.044299554 1.7302225 -0.32562178 0.6365024 0.100306734 -1.3167231 0.34490904 1.0680625 -1.0167 0.89138985 1.4005227 -0.41365862 0.29079026 -1.2420503 2.252544 0.609495 -0.4442203 0.6573787 -0.3757409 0.4054838 0.30470645 0.9716575
at -1.5882633 0.72460806 1.4995178 0.95184386 0.6353316 1.894396 0.7881315 -0.0895888 0.68547857 0.7167615 -0.8758482 -0.6805404 1.1523012 -0.47440916 -0.4398446 1.0916729 0.3895078 -1.647762 -0.5313458 0.9004625 0.9707832 -0.7121269 0.78678745 0.031766552 0.44292098 -0.56042707 -0.78807503 0.3749497 1.4942594 -1.5884422 0.6543383 -0.16067284 1.2234125 -0.80257165 0.19649398 -0.13918874 -1.2660644 1.6524278 -0.12520808 0.39919388 -0.39524895 0.7816215 -0.38101247 1.7442722 -0.35494235 0.23577589 -0.5393403 -1.6808769 0.46349537 0.9775071 -1.2347133 0.77255684 1.4297311 -0.8300318 -0.4828487 -1.6835521 1.690948 -0.1922872 -0.14290611 0.021199353 -0.9170348 0.77350324 0.46645242 -0.31981012
ceos 1.8922489 0.056646306 0.021723133 -0.38944882 -1.6392465 0.5901514 -0.09683624 -0.059006795 -0.15285437 -0.3783459 -0.55452865 -0.10811294 -1.6595153 1.7100936 0.21379448 0.35694095 0.98485994 0.28558654 -0.2867573 0.9762777 0.4062607 1.0462848 1.9742179 0.40318814 0.9038412 0.4545623 0.30871078 0.8266292 -0.034638196 -1.0139548 0.29924443 -0.18374729 1.0084797 -0.5578055 0.7484459 -0.8234906 0.9817692 -1.2626805 -0.04850844 -0.54708076 0.5838488 -0.84633934 -1.2131057 -1.2819355 1.3995558 -1.6282672 1.382808 1.3617607 -0.7389439 -1.3843275 0.9332518 -0.96572757 -0.91968226 0.29595655 -0.25045216 -0.24452816 -0.39855772 -0.2763625 -1.1052678 -1.293807 -0.22956425 -0.21343102 0.6506631 -0.3457561
cars -0.90829694 1.1718764 0.7458051 -0.22664805 1.5061834 2.0799022 0.7346593 0.48214397 1.0178342 0.7670711 -0.5877288 -0.5722086 0.84242857 -0.43677014 -0.99289274 0.16324602 0.6558787 -1.734886 0.022204023 1.2137619 -0.64462775 -1.1183581 0.922717 -0.88543254 0.76153594 -1.0615697 -1.3065305 -0.23557281 1.2316644 -2.105463 0.06339819 0.46678182 1.6849492 -1.168288 0.09895907 0.106938645 -1.3569741 1.1131818 0.1669343 0.55497736 0.14166194 0.2413964 0.3725035 1.6721876 -0.6096995 0.40076777 0.15562586 -1.2999319 -0.00961145 0.51425594 -0.7399891 0.6614766 0.90343356 0.067989826 0.36929393 -1.8893368 2.1220608 0.4995059 -0.54085904 0.1425403 -0.27380612 0.68321234 0.13129702 0.46390784
an -0.881488 -0.7732088 -0.9370914 -0.15770838 -0.1946252 1.3017247 0.5417354 -1.1556003 0.5380026 -0.3104921 0.5549118 0.01996959 2.1025481 -0.20310472 1.3204683 0.38627118 0.4365654 0.22852805 -0.1423177 0.555314 -0.9332452 -1.7796088 0.48685876 -0.12412158 -0.40390614 -0.08552595 -0.39458206 0.28265673 0.53683406 0.026438849 -0.49103764 -1.9101828 1.0609449 1.3603038 -0.5817659 0.036897816 -0.5057536 1.2127378 -0.23738785 0.7473306 -0.43656018 0.52397096 -0.7106823 0.54553956 -0.1822142 0.58783865 -0.44806242 -1.8002691 0.65510654 0.68846685 0.8247114 -0.79095876 -0.055384263 -1.2192588 -0.820118 -1.0315304 0.89246917 1.2605854 1.2823929 -0.26824751 -0.00037414496 1.514393 0.5014346 -0.4879716
would 0.1528917 0.35116097 -0.4445071 -1.6483372 -1.1108466 0.14808357 -0.81570786 0.83080775 0.519698 0.7645802 0.060662083 0.04551271 0.6307811 0.37423426 1.803489 -0.31260172 0.21724774 1.3287004 0.9145812 -0.5735075 1.4028076 1.1629058 -1.2452328 -0.07989061 0.038638234 -0.18677804 0.7103262 0.25487968 -0.77924407 0.83983225 -1.9971883 0.79541695 1.0598539 -1.2034818 -1.7010171 0.80081725 0.37040392 0.5747831 0.70093256 -0.9846683 1.3758355 -0.28794003 -0.7042919 0.020240817 0.7880308 -0.5654351 -0.94289744 1.0659367 -0.5748814 -1.2139157 -0.43265873 1.1679441 0.73669463 0.16404875 0.88331175 -0.027094075 -0.21269597 1.9434817 -0.31942987 -0.26390874 0.16663264 -1.9732652 0.25342727 -0.30604666
google -1.1018425 0.36774883 -0.06092852 0.15274732 -0.021169983 1.5252839 1.3888525 -0.469843 0.54696316 0.6950012 -0.5864229 0.045689292 1.1548568 -0.50339967 -0.048372008 0.012064648 0.3403182 -1.4440986 -0.5832692 1.2056937 -0.7445215 -1.1296749 0.6809297 -0.71197414 1.0092221 -0.2174771 -0.62775654 0.27063644 1.2565973 -1.1557178 0.40574405 -0.33626086 1.3367611 -0.15669234 -0.602543 -0.2955609 -0.9348356 1.4652456 0.02531168 0.61081856 -0.45139468 1.1812648 -0.2517715 1.6686994 -0.6706418 0.712657 -0.58781177 -1.7930496 0.29645872 0.7936502 -0.16564065 0.034512646 -0.11647525 -0.37954098 -0.29849234 -2.1798558 1.3391284 0.36441407 0.26959735 0.28544396 -0.851118 1.0939611 1.1165022 -0.25280958
talking 0.24115415 0.9870589 0.12306784 0.72648895 -0.70038307 0.31012458 0.6044989 0.86455727 0.026237134 -0.6247175 0.3137143 0.38450682 -1.015238 -1.3097293 -0.6582855 0.43743643 -1.2940334 0.2420548 -1.0821123 -1.8062947 -0.78054017 -0.08228514 0.026877794 0.86625767 -1.8582116 -0.582295 -0.6100406 0.14828238 1.956872 1.6113981 1.2678869 1.4425055 -1.4488628 0.6084338 0.13935761 -0.23025045 -0.36748168 -0.19580129 -1.0835068 1.4516808 -1.1298405 1.8367957 -0.5622558 1.4342355 0.1759454 1.7955273 0.5575392 0.6353632 0.749305 1.6805224 -1.1226658 -0.93092006 -1.521833 -0.8900531 0.6175605 0.25068182 -1.2841831 -0.1671202 -0.2596436 0.8608263 0.07613423 0.5577224 -0.51289177 1.0952334
major 0.7331148 -0.16076566 -0.0011296578 -1.6369255 -1.2473004 0.25333408 -1.4503621 -0.20151238 -0.33208454 0.14748856 -0.28045675 0.05533227 -1.0545857 1.2174258 0.8828451 1.811006 0.62177926 0.43327022 0.6809674 0.13598451 1.6177509 1.5758336 1.507118 0.047066163 1.1356899 0.6054629 0.4057506 0.3850957 0.10468014 -0.43665296 -0.82878774 0.20673521 1.227068 -0.97310656 -0.7376957 -0.00856374 0.7522348 0.017451778 0.5100063 -0.4848164 1.3653352 -0.734677 -1.003066 -0.55341727 0.81985044 -1.8394562 0.7854532 1.9893798 -0.43595985 -1.2068256 -0.78189147 0.07524825 0.13068321 -0.063033506 -0.6291674 0.10547253 0.15401436 0.50162125 0.012585252 -0.8789351 -0.2995393 -1.5801055 -0.3113841 -0.09705362
tell 0.90629125 0.84524304 -1.8139769 0.96749026 -1.1181667 -1.106291 0.79554135 1.0447286 0.27936983 -1.0415771 1.0807517 0.251906 -1.9588675 0.37613577 -0.55974215 -1.6864078 0.9797758 -0.06593298 0.58175 1.7153972 1.0005652 -0.028165486 -0.23396379 0.58258706 0.5366499 -1.0668999 -0.31449687 -0.05792593 -0.5412096 0.0064580105 0.115548 1.1728712 -0.9196936 0.19042267 0.7682235 -0.8357616 -0.342175 -1.7434655 -1.4086006 -0.75478965 -0.21720943 0.97416174 0.42157313 -0.883592 1.8190084 -1.3197286 0.52633506 0.82506907 0.099141024 -0.11143004 1.2592381 -1.2346541 -1.2638894 1.5716585 1.3805743 -0.4402337 -0.8596572 -0.21255364 -0.54829806 0.2956761 -0.668651 -0.3524715 0.35219336 0.8520627
sebastian 0.37144077 0.49704587 -1.0698481 1.1128228 1.2814437 0.13157895 0.53510416 -1.2044042 -0.28404215 0.2851573 0.18668573 -0.64905185 -0.06176197 -1.6546173 1.0171602 1.051302 -1.4228817 -0.529734 -0.6586081 0.5187589 -1.3095096 0.088306315 -0.23390959 -0.058091946 -0.7968022 -0.7091442 -0.5138856 -1.1068949 0.11584187 0.19435853 0.077403694 -0.5217645 -0.31807658 -0.057541147 0.56009936 -1.1434233 -0.70252025 1.1348729 0.9843221 0.36147317 0.5992601 0.4908273 1.2219476 1.9736441 -0.58869636 0.06594885 -0.23101273 -1.0479202 0.981747 1.4918182 0.85975426 0.76548874 -0.7186993 -1.2962154 -0.33082724 -0.5090964 0.2657495 0.32759586 1.3007399 1.1508336 1.6798203 0.7912729 -0.73542696 1.2990166
said 0.21696821 0.57885385 0.0456875 0.8034394 -0.09575595 0.42143768 1.300445 -0.3021379 -0.10825855 -0.10003035 0.8465058 0.53830254 -0.2503688 -1.5541402 -0.14506876 0.09170893 -1.8331854 -0.39583135 -0.8734579 -0.8476312 -1.5525885 0.08168669 -0.13656357 0.15794033 -1.7021776 -0.12192606 -0.6808354 0.15535901 1.3893026 0.9902644 1.1307993 0.30724055 -0.90206707 0.4455974 -0.1224154 -0.9840242 -0.017124886 0.507934 -0.34184903 0.80332917 -0.40762362 1.3304627 -0.34221423 2.0295377 -0.46752015 1.8464233 -0.019783631 -0.18564115 1.0756965 2.3039315 -0.4293634 -0.903393 -1.7400103 -1.5094668 0.20011684 -0.044852845 -0.4295056 -0.48066655 0.57961935 1.2918432 0.8891627 0.5486509 0.36092234 0.44450203
outside 1.4487419 -0.20990045 0.8539292 -0.25411332 -1.3420517 0.2545052 0.12240276 -1.6039648 -0.65087867 0.2771871 -0.7913263 -0.42308226 -0.8045269 0.85361946 1.9721304 0.6406648 0.56636673 -1.26198 0.48704556 1.4380274 1.1186682 0.7636145 2.3422155 0.14810812 1.2118522 1.2471839 -0.07107455 0.66789407 0.05869176 -0.6215857 0.413589 -0.95300734 0.14802341 0.3197305 0.078332044 -0.5098302 1.0296938 0.8265642 0.9876329 -0.5381693 0.8790628 -0.6944562 -0.75998986 -0.40993902 0.25646555 -0.5662912 0.2128311 0.38231024 -0.7918463 -1.6958464 -0.3362424 0.027614526 -0.19112054 -0.8756384 -0.816066 0.07684177 0.9216265 -1.534793 0.27025118 -0.94777125 -0.8187329 -0.028214853 0.031248791 -1.7222606
can 0.91231066 -0.24357769 -1.2730405 0.729029 -0.4574034 -1.5247003 -0.084946156 1.1772336 0.9703074 -0.6821382 0.6185736 -0.20769273 -1.4705703 0.25985008 -0.16203824 -1.2722329 0.8384156 0.24841914 0.11034536 0.9217676 0.41125563 -0.05645496 -0.2383194 1.5703042 0.14991996 -0.7188923 0.4635184 0.15217814 -0.54972637 -0.02117608 0.63273865 1.50865 -1.5985464 1.0466566 0.5831537 0.055359155 0.29108542 -1.4313865 -1.0701777 -1.1111273 -0.6281695 0.6214472 0.70173985 -1.0155753 1.2596177 -0.16536063 0.96150786 0.096374236 -0.020105068 -0.1947093 1.0279709 -0.9106813 -0.80438364 0.96363795 0.87710273 -0.54085344 -1.7489314 -0.51766825 -0.92176473 0.50340235 -1.3757296 0.47984353 -0.21135664 0.9978357
on -0.12753439 1.3785738 1.7448261 0.028434407 2.2337763 1.4918582 -0.27306765 0.093059845 0.9530065 0.32414913 -0.055319056 -0.9273358 0.7366811 -0.8172244 -1.0004927 -0.2555687 -0.039853714 -1.3790174 -0.29338095 1.227792 -1.3916718 -0.93390185 0.97304946 -0.7666519 -0.9271681 -1.1817287 -1.4363484 -0.04511169 1.1149329 -1.5797884 0.05928017 0.9302776 0.25893244 -0.49488547 0.734064 0.39009586 -0.9461828 0.017838651 0.3977709 0.52499974 -0.11117695 -0.9781926 0.65741974 1.5504373 -1.0070457 0.8975307 0.47797772 -1.0256563 0.026734829 1.7935504 -0.95970076 0.12802555 0.46419376 -0.36121613 0.69188756 -0.36483762 2.0771246 -0.24008863 -0.6871727 1.0898272 0.10443191 0.6071149 -0.40614516 0.51354975
worth 0.35203212 1.0097989 0.31830892 0.82634634 -0.7744587 -1.4538983 -0.2646356 0.9770315 0.4118588 -0.74634737 -0.32774055 0.03876914 -1.5692008 -0.9168566 -0.7554451 -0.32211247 -0.50344825 -0.16881031 -0.95881647 -1.8096852 -0.975001 0.49766737 0.06861161 0.82310385 -1.9168085 -0.046903294 -0.01170458 -0.065059744 0.36847875 1.2532578 1.185962 1.0192903 -2.217069 0.44134447 0.017764663 0.84167683 -0.7728037 -1.0645516 -0.3273893 0.9366168 -1.3371298 1.341703 -0.6242418 0.38001087 -0.050285045 1.8058286 -0.303117 0.30211505 1.0010967 1.4254476 -1.0522592 -0.9886127 -0.85390055 -0.7989151 1.2309364 0.004237585 -1.5812635 -0.2861898 0.07567898 0.7727377 -0.5410024 0.8409201 -1.2487801 0.95932263
wasn’t 0.100499764 0.5002064 -0.11763775 1.0157839 -0.7599065 -0.74823976 0.075034164 1.2003766 0.2506895 -0.8802874 -0.061998144 -0.07922879 -1.3773559 -0.7975566 -0.70184827 -0.19860768 -0.30206022 0.48405427 -0.85535866 -1.2539984 0.021834759 -0.07425671 -0.11411599 1.2848735 -1.198334 -0.9371342 0.044299163 -0.11688833 0.8438505 1.2898719 1.2560573 1.7568295 -2.108927 1.0105772 0.31296733 0.5269492 -0.663411 -0.9170301 -1.2603681 1.130248 -1.3043696 1.6578268 0.32955822 0.23572423 0.52514666 0.840628 0.4369434 0.28666723 0.00806952 0.4468246 -1.0287654 -0.46039468 -0.77212036 0.2919908 0.66689175 0.19885045 -1.5086764 -0.2523962 -0.74802876 0.35463905 -0.9273025 0.47854614 -1.166311 0.9791194
him -0.4831047 -0.7334652 1.1390301 0.3405026 0.6930618 -2.5119696 -0.6487987 -0.3900386 -1.3502227 -0.7465101 0.93304735 -0.7506438 -1.6955941 0.70147055 -0.6913658 -0.026099576 0.33606097 0.8107509 -0.5271673 0.44293714 1.633656 1.5492235 -0.18064258 0.46520784 -0.7211012 0.3613767 1.266942 1.6536021 -0.82971895 1.1625965 -0.91462946 1.1616473 -1.4000045 0.53396726 0.2503227 0.6093294 -0.21918002 -1.7673159 -1.4424795 0.7911893 -1.248427 0.58644176 0.19062664 -1.1714783 -1.0347446 -0.7288896 0.49012765 0.14385718 -1.3342391 -0.4204351 -2.1500547 -0.30814388 -1.3670719 0.41011062 -0.52702254 0.58276427 -0.37765253 -0.6812812 -0.5575368 0.16949281 -1.2820224 -0.08214436 0.0014194943 -0.32299802
the 0.23943923 0.20166355 1.0892546 -0.31280988 -0.10052315 -1.0640678 -0.7780416 -1.3817652 -1.4521325 0.20147245 -0.35344568 -1.1905487 -1.8074695 1.7174455 0.21556678 0.9764481 0.4391048 0.6031863 -0.14108668 0.17182523 1.5285968 1.9135802 1.9914302 0.10748505 0.4120105 0.63901186 1.0689197 1.0016372 -0.74388915 -0.109163426 -0.5459046 -0.24154176 0.21183099 -0.28853348 0.19485436 -0.077028744 0.3122482 -0.8537706 0.0010637908 0.53419375 0.38472396 -0.7224065 -0.5087287 -0.90120643 0.20273001 -1.13892 0.98981875 0.42831877 -1.8599912 -1.2268546 -1.1227578 -0.42059013 -1.104653 0.252299 -1.5395216 0.21987133 0.034152072 -0.8133675 -0.3886931 -1.0764854 -0.34849146 -0.34250075 -0.10750268 -0.49861097
working 0.45065492 1.3581952 0.88321584 0.13715559 1.798806 1.2787632 -0.65572554 0.48707718 0.75020784 0.08044098 0.7024768 -0.43121454 0.39533767 -1.4692142 0.25007683 -0.635845 0.32028118 -0.8713849 -0.67029905 1.1002766 -0.9550972 -0.19268417 0.38936234 -1.602067 -0.9642744 -0.66068256 -1.1538355 -0.046663977 1.1917526 -0.8763191 0.34944624 -0.37538308 0.26235992 -0.07634423 0.4028684 -0.18661974 0.06423968 0.1472955 1.3222563 0.49399796 0.3246022 -1.4420398 0.32670182 2.2621312 -0.42219537 1.0116 0.08508923 -0.9116445 0.58777034 2.2372856 -0.71177167 0.2701383 0.23856649 -1.4006242 0.3605472 -0.24215114 2.8093362 0.6041081 -0.30670798 1.1823558 0.15676293 0.51940143 0.24151549 1.2638794
because -0.09519314 -0.9286617 -0.19483763 0.12397893 -0.29882205 -1.7578796 -0.4762879 1.8185579 0.52441347 0.3768421 -0.01629587 0.7418819 -0.20266956 -0.3055585 -1.1130223 -1.3624359 -0.39247292 0.6824148 0.5016324 -0.46442056 -0.0885636 0.16819145 -0.71004647 0.9257992 0.101403944 -1.0917461 0.4038265 -0.3160328 -1.0086447 0.6311826 0.4802962 2.068059 -1.8894192 1.7030088 0.0933251 0.7892255 -1.1135371 -1.0637615 -1.1959664 -0.7407423 -0.40760636 0.8706498 1.9095938 -0.048500683 0.60548335 -0.3482945 -0.33131826 -0.83638066 -1.1314651 -0.790301 -0.36677536 0.19771004 0.13734391 1.4165449 0.65912354 0.33865002 -1.1700758 -0.4339395 -0.41939545 0.4439647 -1.1933542 -0.69394934 -0.82530886 -0.19293708
seriously -0.7211149 -0.72538966 0.097610444 0.7775939 0.4024584 -2.360758 -0.052862734 -0.23450713 -0.45056278 -0.3996967 0.9646986 -0.54070914 -1.6335237 0.25702277 -0.67857903 -0.7107103 0.61723924 1.191053 -0.7927125 0.05389191 1.5137943 0.8301523 -0.475466 1.0539601 -0.110145666 -0.6940537 1.6151448 0.8578556 -1.1997908 0.93342125 -0.03096733 1.2871084 -1.7854265 1.0581803 0.05144193 0.6299485 -0.27657238 -0.9247685 -1.5938077 0.29832137 -0.71203816 0.69083583 0.8310153 -0.5316943 -0.10312226 0.00074327615 0.49506873 -0.85491675 -0.9917309 -0.49675658 -1.0918481 -0.39550048 -0.37889084 0.9397026 -0.6885613 -0.34882778 -1.1379887 -1.3968804 -0.122382484 -0.3405112 -1.2595301 -0.028454991 -0.74202657 0.16733631
company -0.193171 0.118170746 0.85820955 0.1577368 0.29091403 -1.8346422 -0.24162611 -1.1319784 -1.9690558 -0.43720365 0.59412426 -0.95582145 -2.1928115 1.6083518 -0.039336976 1.3200679 0.65010494 0.96865314 -0.30148825 -0.44646123 1.9325645 1.675215 0.35045308 0.43955177 -0.170357 0.5651271 1.1249487 1.3254402 -0.8934078 0.41845053 -0.4497067 -0.28371817 -0.35500363 -0.16939025 -0.09894658 -0.6985581 0.9394428 -1.0884784 -1.1602038 0.9469995 0.34896147 -0.67714745 -0.3579957 -0.3635577 -0.23362319 -1.4737502 0.26331344 0.24410853 -1.2975959 -0.49495786 -2.0660017 -0.60592926 -1.343988 -0.20733266 -1.1473184 -0.50159633 0.23147279 -1.2882239 -1.1767465 -0.9079055 -0.5299923 -0.7956892 -0.050655123 -1.0044224
started 0.54066056 0.5740961 0.9518598 0.2641531 1.8226032 0.8705162 0.21296476 -0.8351612 0.5155795 0.12013071 0.87346816 -0.15541738 0.7653794 -1.3002074 -0.19226505 -0.12567411 -1.2730193 -1.160027 -0.6574056 1.0008348 -2.3117626 -0.37644732 0.8292363 -0.65414757 -1.5143722 -0.48058465 -0.9906289 -0.17496605 0.88510215 -0.86752045 0.35316688 -0.036991768 -0.5068759 0.30805677 0.47126165 -0.33093464 -0.25767595 0.04190475 0.6317381 0.40796104 0.3563064 -1.1290514 0.9272118 1.5017314 -1.1908066 0.9298827 0.20752928 -0.9085232 0.34561625 2.2528372 -0.4623061 -0.1649661 -0.53869355 -1.0056871 -0.005062663 0.27308774 1.5994927 -0.31278694 0.12607867 1.3632064 1.0117601 0.3129698 -0.12485392 0.13070849
took -0.8334718 -0.19199221 0.8980802 0.33590925 0.675764 -1.9032601 -0.35623723 -1.4033637 -1.3238441 0.0944461 0.75629914 -1.0435293 -2.0505595 1.0640546 -0.7461917 0.38717353 0.46862593 1.1753334 -0.87175566 0.019553708 2.100951 1.7970628 0.83336353 0.44161087 0.134079 -0.24661954 1.761563 1.3766482 -1.0192058 0.6768857 -0.7045351 0.6571364 -0.53380436 0.27404195 -0.0746382 0.3879571 -0.18409705 -0.86569977 -1.1003506 0.95447886 -0.09827593 0.028205665 0.27952227 -0.5095123 -0.33853808 -0.43556023 0.98450965 -0.52648073 -1.6152573 -0.52460945 -1.6219954 -0.44136643 -0.8710231 0.8491739 -1.753481 -0.2791838 -0.48973057 -1.3143708 -0.09800254 -0.9678825 -0.62852824 -0.24561815 -0.28119254 0.0147494115
week -0.92476577 -0.8451903 -0.60841966 -0.4748075 0.43475276 0.76240623 0.53077394 -0.6482736 -0.06983989 -0.78477573 0.86737335 0.85239434 0.8178134 -0.61618036 -0.91551375 0.81241804 0.07329032 1.1654885 0.8343526 0.38957512 -0.99048626 -0.2603713 -0.21237679 0.7014376 0.029824618 -0.23387094 0.35020524 -0.03882379 -0.13066575 -0.31136099 -1.2612808 -0.5082719 1.8463142 -1.3134403 1.8689048 0.3418052 -0.8304015 0.83004534 -0.6368367 0.5092004 -0.2607663 0.3792782 -0.12330886 -1.1925256 -0.6834657 0.71348315 0.238071 -0.69269943 0.9347813 -0.23475876 1.426288 0.5173064 0.43610495 -0.510364 0.35783568 0.5227726 -0.99674153 0.6247772 0.5207094 -1.456867 0.24904363 0.9468532 -0.87905705 -0.55530125
 0.3884363 0.9622765 -1.8410937 1.1055628 1.2419379 -0.30971503 0.02801636 -1.0973226 -0.1772546 0.099059656 -0.36845973 -1.0516804 -0.46308357 -1.6670487 1.2760577 1.1023667 -0.95002496 -0.17927723 -0.12265806 0.43915734 -1.081406 0.53810555 -0.47279388 -0.20046887 -0.21688034 -0.7876904 -0.25543585 -1.6743791 -0.5159469 0.19930004 -0.039512593 -0.43469104 -0.27807593 -0.40284282 0.64711547 -0.8123913 -0.9242173 1.2378514 1.2783465 0.37552541 0.84975505 0.81845444 1.3361136 2.2163548 -0.7719554 -0.43934909 -0.02303993 -1.2149167 0.43233472 0.6415457 1.083889 1.4185556 -0.48288602 -1.0329412 -0.13266112 -0.711093 -0.1510164 0.36870056 1.3339238 1.1608114 1.7544472 0.77604353 -1.305395 2.0641077
